digraph Tree {
node [shape=box] ;
0 [label="X[56] <= 0.5\ngini = 0.026\nsamples = 13343\nvalue = [[13334, 9]\n[12746, 597]\n[13220, 123]\n...\n[12767, 576]\n[13337, 6]\n[13236, 107]]"] ;
1 [label="X[72] <= 0.5\ngini = 0.026\nsamples = 13315\nvalue = [[13306, 9]\n[12718, 597]\n[13192, 123]\n...\n[12739, 576]\n[13309, 6]\n[13208, 107]]"] ;
0 -> 1 [labeldistance=2.5, labelangle=45, headlabel="True"] ;
2 [label="X[167] <= 0.5\ngini = 0.026\nsamples = 11818\nvalue = [[11810, 8]\n[11292, 526]\n[11708, 110]\n...\n[11309, 509]\n[11812, 6]\n[11725, 93]]"] ;
1 -> 2 ;
3 [label="X[217] <= 0.5\ngini = 0.026\nsamples = 11511\nvalue = [[11503, 8]\n[10999, 512]\n[11403, 108]\n...\n[11013, 498]\n[11505, 6]\n[11420, 91]]"] ;
2 -> 3 ;
4 [label="gini = 0.026\nsamples = 11332\nvalue = [[11324, 8]\n[10829, 503]\n[11227, 105]\n...\n[10845, 487]\n[11327, 5]\n[11242, 90]]"] ;
3 -> 4 ;
5 [label="gini = 0.026\nsamples = 179\nvalue = [[179, 0]\n[170, 9]\n[176, 3]\n...\n[168, 11]\n[178, 1]\n[178, 1]]"] ;
3 -> 5 ;
6 [label="X[121] <= 0.5\ngini = 0.026\nsamples = 307\nvalue = [[307, 0]\n[293, 14]\n[305, 2]\n...\n[296, 11]\n[307, 0]\n[305, 2]]"] ;
2 -> 6 ;
7 [label="gini = 0.026\nsamples = 305\nvalue = [[305, 0]\n[291, 14]\n[303, 2]\n...\n[294, 11]\n[305, 0]\n[303, 2]]"] ;
6 -> 7 ;
8 [label="gini = 0.026\nsamples = 2\nvalue = [[2, 0]\n[2, 0]\n[2, 0]\n...\n[2, 0]\n[2, 0]\n[2, 0]]"] ;
6 -> 8 ;
9 [label="X[157] <= 0.5\ngini = 0.026\nsamples = 1497\nvalue = [[1496, 1]\n[1426, 71]\n[1484, 13]\n...\n[1430, 67]\n[1497, 0]\n[1483, 14]]"] ;
1 -> 9 ;
10 [label="X[58] <= 0.5\ngini = 0.026\nsamples = 1460\nvalue = [[1459, 1]\n[1390, 70]\n[1449, 11]\n...\n[1394, 66]\n[1460, 0]\n[1446, 14]]"] ;
9 -> 10 ;
11 [label="gini = 0.026\nsamples = 1416\nvalue = [[1415, 1]\n[1346, 70]\n[1406, 10]\n...\n[1355, 61]\n[1416, 0]\n[1402, 14]]"] ;
10 -> 11 ;
12 [label="gini = 0.029\nsamples = 44\nvalue = [[44, 0]\n[44, 0]\n[43, 1]\n...\n[39, 5]\n[44, 0]\n[44, 0]]"] ;
10 -> 12 ;
13 [label="X[169] <= 0.5\ngini = 0.024\nsamples = 37\nvalue = [[37, 0]\n[36, 1]\n[35, 2]\n...\n[36, 1]\n[37, 0]\n[37, 0]]"] ;
9 -> 13 ;
14 [label="gini = 0.023\nsamples = 33\nvalue = [[33, 0]\n[32, 1]\n[31, 2]\n...\n[32, 1]\n[33, 0]\n[33, 0]]"] ;
13 -> 14 ;
15 [label="gini = 0.015\nsamples = 4\nvalue = [[4, 0]\n[4, 0]\n[4, 0]\n...\n[4, 0]\n[4, 0]\n[4, 0]]"] ;
13 -> 15 ;
16 [label="X[147] <= 0.5\ngini = 0.024\nsamples = 28\nvalue = [[28, 0]\n[28, 0]\n[28, 0]\n...\n[28, 0]\n[28, 0]\n[28, 0]]"] ;
0 -> 16 [labeldistance=2.5, labelangle=-45, headlabel="False"] ;
17 [label="X[167] <= 0.5\ngini = 0.024\nsamples = 27\nvalue = [[27, 0]\n[27, 0]\n[27, 0]\n...\n[27, 0]\n[27, 0]\n[27, 0]]"] ;
16 -> 17 ;
18 [label="X[126] <= 0.5\ngini = 0.023\nsamples = 26\nvalue = [[26, 0]\n[26, 0]\n[26, 0]\n...\n[26, 0]\n[26, 0]\n[26, 0]]"] ;
17 -> 18 ;
19 [label="gini = 0.023\nsamples = 22\nvalue = [[22, 0]\n[22, 0]\n[22, 0]\n...\n[22, 0]\n[22, 0]\n[22, 0]]"] ;
18 -> 19 ;
20 [label="gini = 0.017\nsamples = 4\nvalue = [[4, 0]\n[4, 0]\n[4, 0]\n...\n[4, 0]\n[4, 0]\n[4, 0]]"] ;
18 -> 20 ;
21 [label="gini = 0.0\nsamples = 1\nvalue = [[1, 0]\n[1, 0]\n[1, 0]\n...\n[1, 0]\n[1, 0]\n[1, 0]]"] ;
17 -> 21 ;
22 [label="gini = 0.0\nsamples = 1\nvalue = [[1, 0]\n[1, 0]\n[1, 0]\n...\n[1, 0]\n[1, 0]\n[1, 0]]"] ;
16 -> 22 ;
}
